{
    "fc1.weight": [
        [
            0.009828067384660244,
            0.028741855174303055,
            0.00381081341765821,
            -0.03100622072815895,
            -0.022959990426898003,
            0.027797333896160126,
            -0.029021242633461952,
            0.02556765452027321,
            0.01482869777828455,
            -0.021076040342450142,
            0.036590080708265305,
            0.003358695190399885,
            -0.030733272433280945,
            0.02118625119328499,
            0.020610610023140907,
            -0.016489531844854355,
            -0.018811628222465515,
            0.03144073113799095,
            0.022354725748300552,
            -0.017167747020721436,
            -0.004821473266929388,
            0.003666364587843418,
            0.026327453553676605,
            -0.02333776094019413,
            -0.015241449698805809,
            0.030046572908759117,
            -0.0058343857526779175,
            0.03191400319337845,
            0.029090676456689835,
            -0.018932722508907318,
            0.0037641790695488453,
            0.0321345254778862,
            0.02617652900516987,
            0.019918259233236313,
            -0.009761233814060688,
            0.016173165291547775,
            0.0023748718667775393,
            0.009032855741679668,
            0.0042114583775401115,
            0.01633337326347828,
            0.001879730261862278,
            0.019110262393951416,
            0.024764491245150566,
            0.001975224120542407,
            -0.018861420452594757,
            0.014731798321008682,
            0.013043391518294811,
            -0.007946311496198177,
            -0.015418114140629768,
            0.008660080842673779,
            -0.01649954728782177,
            0.031352449208498,
            0.03384118154644966,
            0.011348617263138294,
            0.015371819958090782,
            0.02385001629590988,
            0.03349670395255089,
            0.0258739423006773,
            0.03609783947467804,
            0.027722591534256935,
            0.04962436854839325,
            0.02732805348932743,
            0.03326650708913803,
            0.018119024112820625,
            0.044996947050094604,
            0.018205653876066208,
            0.06336692720651627,
            0.020744869485497475,
            0.0058912355452775955,
            0.007632311899214983,
            -0.013855790719389915,
            0.022758152335882187,
            -0.011531137861311436,
            -0.0361148938536644,
            -0.02345670387148857,
            -0.02751314640045166,
            0.023316090926527977,
            0.027016127482056618,
            -0.006235107779502869,
            0.03528844937682152,
            0.017316777259111404,
            0.03601410612463951,
            0.003234276780858636,
            -0.017174065113067627,
            -0.006578502710908651,
            -0.023844914510846138,
            -0.02528633177280426,
            0.044794779270887375,
            0.03992963582277298,
            -0.013528690673410892,
            -0.016543017700314522,
            0.01654609851539135,
            0.04765336215496063,
            0.047965481877326965,
            0.02837492525577545,
            0.0730007067322731,
            0.004249916411936283,
            0.03676757961511612,
            0.02674926444888115,
            0.023513689637184143,
            0.013233245350420475,
            -0.04278746619820595,
            1.1718292626028415e-05,
            0.005360682960599661,
            0.028332320973277092,
            0.021320784464478493,
            0.029916614294052124,
            -0.026689251884818077,
            2.7579741072258912e-05,
            -0.01279396004974842,
            -0.02482285350561142,
            0.027973873540759087,
            -0.007136078551411629,
            0.0019939164631068707,
            0.009757625870406628,
            -0.01567433588206768,
            0.02693198062479496,
            0.007467246148735285,
            -0.006313184276223183,
            0.02217772975564003,
            0.0313984639942646,
            0.060209985822439194,
            0.0025836515706032515,
            -0.0014024538686499,
            0.00632606353610754,
            0.0009681509691290557,
            0.04239993542432785,
            0.014985425397753716,
            -0.02906622923910618,
            -0.03820424526929855,
            0.012093055993318558,
            -0.018250465393066406,
            0.0136795062571764,
            0.033434122800827026,
            0.01753334142267704,
            0.004648061003535986,
            0.05299769714474678,
            0.04129311814904213,
            0.017056623473763466,
            -0.002078085904940963,
            -0.005998936481773853,
            0.020721688866615295,
            0.008257109671831131,
            -0.015420020557940006,
            -0.03217011317610741,
            0.010487433522939682,
            -0.03272280842065811,
            0.022459346801042557,
            0.007998531684279442,
            0.03389083966612816,
            0.014958431012928486,
            -0.0058793905191123486,
            -0.0036054227966815233,
            0.02000565081834793,
            -0.017701759934425354,
            -0.0027729615103453398,
            0.03240414708852768,
            0.014846831560134888,
            0.021148575469851494,
            -0.0066091143526136875,
            0.03921826556324959,
            -0.013025122694671154,
            -0.005401147063821554,
            0.019542153924703598,
            0.003979605622589588,
            0.02509058639407158,
            0.03368943929672241,
            0.018959306180477142,
            0.013028521090745926,
            0.009729382582008839,
            -0.001423750421963632,
            0.014715668745338917,
            -0.02544659562408924,
            -0.034081730991601944,
            -0.03174549713730812,
            -0.018660031259059906,
            0.015229756943881512,
            -0.018799692392349243,
            -0.0323476642370224,
            0.031102370470762253,
            -0.02391204796731472,
            0.0014182624872773886,
            -0.016118468716740608,
            0.020241109654307365,
            0.01128506101667881,
            -0.007785132620483637,
            0.034327082335948944,
            0.01638360694050789,
            0.07186906039714813,
            0.05523545295000076,
            0.012737547047436237,
            0.040392518043518066,
            0.010824183002114296,
            0.05389494076371193,
            -0.006291883531957865,
            0.03734476864337921,
            -0.011606045067310333,
            0.01772199757397175,
            -0.026863573119044304,
            -0.0032147050369530916,
            0.008051155135035515,
            -0.04216838255524635,
            -0.01629861630499363,
            0.0033237424213439226,
            0.01061038114130497,
            -0.03076910972595215,
            -0.011280126869678497,
            -0.013107012026011944,
            0.0072687044739723206,
            -0.05552404001355171,
            -0.007845248095691204,
            -0.0023399065248668194,
            0.04426765814423561,
            0.033952273428440094,
            0.07333511114120483,
            0.053344011306762695,
            0.02133202739059925,
            0.06688681989908218,
            0.0587344616651535,
            0.0474599227309227,
            0.020093243569135666,
            0.006041029002517462,
            0.029360195621848106,
            0.01233097817748785,
            -0.004066945984959602,
            0.003989584278315306,
            -0.04007882997393608,
            -0.028640305623412132,
            -0.006045299116522074,
            -0.05058782920241356,
            -0.03235051408410072,
            -0.018793396651744843,
            0.003801178652793169,
            0.006013637874275446,
            -0.02807927317917347,
            -0.04965885728597641,
            -0.057973988354206085,
            -0.007793143857270479,
            -0.01454738900065422,
            -0.041433513164520264,
            -0.02071952261030674,
            0.03920280188322067,
            0.053551193326711655,
            0.06019393727183342,
            0.056354228407144547,
            0.03572431206703186,
            0.0595545619726181,
            0.02766817808151245,
            0.008271967060863972,
            0.02943793497979641,
            0.029383422806859016,
            0.027254395186901093,
            0.020850343629717827,
            0.011905013583600521,
            -0.0022944039665162563,
            -0.005074718035757542,
            -0.03205117955803871,
            -0.03983834385871887,
            -0.043787892907857895,
            -0.06648510694503784,
            -0.044642046093940735,
            -0.04002697765827179,
            -0.048708874732255936,
            -0.03968716040253639,
            -0.02399406023323536,
            -0.07784894108772278,
            -0.01837289333343506,
            -0.009764163754880428,
            -0.0005829596775583923,
            0.01401884388178587,
            0.015168880112469196,
            0.07894449681043625,
            0.031067069619894028,
            0.015337207354605198,
            0.05395226553082466,
            0.010146595537662506,
            0.0455247163772583,
            0.0614808015525341,
            0.011890077032148838,
            0.027577439323067665,
            -0.01783088967204094,
            -0.017328033223748207,
            -0.0017005823319777846,
            -0.06434504687786102,
            -0.02951662242412567,
            -0.023832326754927635,
            -0.06967172771692276,
            -0.024300869554281235,
            -0.018199458718299866,
            -0.033485859632492065,
            0.0299393218010664,
            -0.04388812556862831,
            -0.021644124761223793,
            -0.060367245227098465,
            -0.012789021246135235,
            -0.023428378626704216,
            0.012430792674422264,
            0.02474912814795971,
            0.055578652769327164,
            0.07458563148975372,
            0.05802212283015251,
            0.08269266784191132,
            0.05551492050290108,
            0.06586778163909912,
            0.04161974415183067,
            0.022042060270905495,
            0.017425047233700752,
            0.06495194137096405,
            -0.029543185606598854,
            -0.017945779487490654,
            -0.04716339707374573,
            -0.04911864548921585,
            -0.0487968809902668,
            0.003888052422553301,
            -0.027469182386994362,
            -0.04724394902586937,
            -0.030691664665937424,
            -0.012514944188296795,
            -0.005704481154680252,
            -0.019002338871359825,
            0.008087171241641045,
            0.017507418990135193,
            -0.02264528162777424,
            -0.03244437277317047,
            -0.03857855126261711,
            -0.02040598914027214,
            0.03724457696080208,
            0.039701491594314575,
            0.06297406554222107,
            0.031007986515760422,
            0.03399934247136116,
            0.029472313821315765,
            -0.005478448700159788,
            0.047832418233156204,
            0.00916658341884613,
            0.013594495132565498,
            0.025313308462500572,
            0.00733959348872304,
            0.009968063794076443,
            -0.027835141867399216,
            -0.03240556642413139,
            0.012753482908010483,
            0.003470441559329629,
            -0.025719687342643738,
            0.023094426840543747,
            0.04523845762014389,
            0.03222952410578728,
            0.04272189736366272,
            -0.004165948834270239,
            0.005999792367219925,
            -0.009877610951662064,
            0.014265462756156921,
            -0.01336757093667984,
            -0.007677523419260979,
            -0.026827789843082428,
            0.02252589352428913,
            0.02297542244195938,
            0.040114786475896835,
            0.023127708584070206,
            0.04741375520825386,
            0.02478756010532379,
            0.012064320035278797,
            0.03022516891360283,
            0.05820702388882637,
            -0.018384333699941635,
            0.006777879782021046,
            0.018908783793449402,
            0.014886636286973953,
            -0.02201973646879196,
            -0.02877967432141304,
            0.035676781088113785,
            0.006606776732951403,
            0.03929435461759567,
            0.015104245394468307,
            0.008344718255102634,
            0.01682608388364315,
            0.015081913210451603,
            0.015316678211092949,
            -0.01357971504330635,
            -0.0032693110406398773,
            0.006146439351141453,
            -0.009963971562683582,
            0.03242013603448868,
            0.02284218743443489,
            0.0607619546353817,
            0.05043043568730354,
            0.058541230857372284,
            0.07155982404947281,
            -0.009287658147513866,
            0.024111034348607063,
            0.02041740156710148,
            0.028887663036584854,
            0.0032864827662706375,
            0.0372244231402874,
            0.055999089032411575,
            0.055223457515239716,
            0.02392647974193096,
            0.02199111320078373,
            0.032548993825912476,
            -0.00860225223004818,
            0.055572401732206345,
            0.038436517119407654,
            0.03972321376204491,
            0.02473682351410389,
            0.017500318586826324,
            -0.03316366672515869,
            -0.04325471818447113,
            -0.014321447350084782,
            -0.041982974857091904,
            -0.024917613714933395,
            -0.024987483397126198,
            0.02651720494031906,
            0.043453462421894073,
            0.0847010612487793,
            0.027718571946024895,
            0.07053466141223907,
            0.02813521772623062,
            0.042126093059778214,
            0.01244492270052433,
            0.018367884680628777,
            -0.0062990193255245686,
            0.031478747725486755,
            0.055111851543188095,
            0.04193838685750961,
            0.03336973488330841,
            0.054751086980104446,
            0.018207281827926636,
            0.055152107030153275,
            0.02819628268480301,
            -0.004718536511063576,
            0.04887468367815018,
            0.008249199949204922,
            0.006741466000676155,
            -0.004356056917458773,
            -0.04214933514595032,
            0.008259804919362068,
            -0.033011212944984436,
            -0.0361383818089962,
            0.029187889769673347,
            0.025654302909970284,
            0.025132473558187485,
            0.05857625603675842,
            0.07957773655653,
            0.041291069239377975,
            -0.0015039691934362054,
            0.05873158574104309,
            0.062054239213466644,
            0.023490075021982193,
            0.027255726978182793,
            0.048287421464920044,
            0.036839213222265244,
            0.07761167734861374,
            0.06345278024673462,
            -0.0019923292566090822,
            0.04319312423467636,
            0.03884283825755119,
            -0.02006017230451107,
            0.006646413821727037,
            0.02420170232653618,
            0.02103188820183277,
            0.013365209102630615,
            -0.039659250527620316,
            -0.04407386854290962,
            -0.06603839248418808,
            -0.03911096230149269,
            -0.010119366459548473,
            0.04100581631064415,
            0.060243669897317886,
            0.052143361419439316,
            0.04313771426677704,
            0.012196420691907406,
            0.035438019782304764,
            0.012205090373754501,
            0.04194406419992447,
            0.0720091238617897,
            0.07635080069303513,
            0.0013124202378094196,
            0.040087100118398666,
            0.028294870629906654,
            0.029750889167189598,
            0.017773913219571114,
            -0.018856126815080643,
            0.024387942627072334,
            -0.02942657843232155,
            -0.0258819330483675,
            -0.039416663348674774,
            -0.04402848705649376,
            -0.03614282235503197,
            -0.057991381734609604,
            -0.06249740719795227,
            -0.018233656883239746,
            -0.06308421492576599,
            -0.06581751257181168,
            0.01587102934718132,
            0.04904985427856445,
            0.04103701561689377,
            0.03149944543838501,
            0.06869976967573166,
            0.0718403235077858,
            0.0700955018401146,
            0.06132951006293297,
            0.07554494589567184,
            0.08282685279846191,
            0.03073187731206417,
            0.03253333270549774,
            -0.0020315118599683046,
            0.0009800001280382276,
            0.029917404055595398,
            0.035596951842308044,
            0.0246823001652956,
            0.005532732233405113,
            -0.034794881939888,
            -0.00422407453879714,
            -0.03088311105966568,
            -0.05410671979188919,
            -0.0782199501991272,
            -0.038722533732652664,
            -0.09386713057756424,
            -0.06010593846440315,
            -0.049819886684417725,
            -0.009537933394312859,
            0.024336231872439384,
            0.01894272305071354,
            0.046580422669649124,
            0.054869119077920914,
            0.04208579659461975,
            0.07684904336929321,
            0.021668199449777603,
            0.03787742182612419,
            0.07123644649982452,
            0.0703352689743042,
            0.03068581409752369,
            0.018304143100976944,
            0.009911310859024525,
            0.030464885756373405,
            0.01800708845257759,
            0.015114796347916126,
            -0.034301985055208206,
            -0.008192380890250206,
            -0.037362150847911835,
            -0.0005004206323064864,
            -0.062339525669813156,
            -0.0690423771739006,
            -0.08674663305282593,
            -0.05437111482024193,
            -0.1002388522028923,
            -0.08699553459882736,
            -0.07751822471618652,
            -0.053388819098472595,
            -0.018573319539427757,
            0.008268282748758793,
            0.07313791662454605,
            0.0798683613538742,
            0.018211280927062035,
            0.06200876459479332,
            0.018205730244517326,
            0.0005415639607235789,
            0.024441784247756004,
            0.0037379825953394175,
            0.025172989815473557,
            -0.030941618606448174,
            0.03077782317996025,
            -0.0162380151450634,
            -0.031613629311323166,
            -0.051362693309783936,
            -0.02970399148762226,
            -0.050669439136981964,
            -0.006207205355167389,
            -0.05728062987327576,
            -0.02151089534163475,
            -0.04098007455468178,
            -0.09165787696838379,
            -0.07032570242881775,
            -0.11810057610273361,
            -0.07648412138223648,
            -0.0753847286105156,
            -0.006686977110803127,
            0.028313880786299706,
            0.07256237417459488,
            0.02629777230322361,
            0.045838579535484314,
            0.06078392267227173,
            0.023493532091379166,
            0.021587882190942764,
            0.010012616403400898,
            0.05191648751497269,
            0.018290292471647263,
            0.006766960024833679,
            -0.02610769122838974,
            0.02569814771413803,
            -0.01645498350262642,
            -0.035641804337501526,
            -0.027848128229379654,
            -0.012531247921288013,
            -0.024154584854841232,
            -0.026685044169425964,
            -0.02212439849972725,
            -0.04958367347717285,
            -0.06001947447657585,
            -0.017374753952026367,
            -0.07395117729902267,
            -0.10343882441520691,
            -0.09856430441141129,
            -0.05188252031803131,
            -0.012188391759991646,
            0.0323336087167263,
            0.038944702595472336,
            0.03624176234006882,
            -0.0006184691446833313,
            -0.009692840278148651,
            0.013655981980264187,
            0.0143372667953372,
            0.023092160001397133,
            0.008644262328743935,
            0.044929563999176025,
            0.002195975976064801,
            0.03742454573512077,
            -0.017497163265943527,
            -0.025984786450862885,
            -0.020915953442454338,
            -0.02345637045800686,
            -0.038590963929891586,
            -0.02376929111778736,
            -0.05093168839812279,
            -0.03816508501768112,
            -0.018151644617319107,
            -0.05160098895430565,
            -0.0034135105088353157,
            -0.07538150995969772,
            -0.0838104709982872,
            -0.06708019226789474,
            -0.02549034357070923,
            -0.015801141038537025,
            0.031536370515823364,
            0.031661614775657654,
            0.01135194394737482,
            -0.007168625947088003,
            0.017013337463140488,
            -0.005933233071118593,
            0.031053708866238594,
            0.0013162910472601652,
            -0.005893421359360218,
            0.03240038454532623,
            -0.0046315924264490604,
            -0.008953223004937172,
            0.011697307229042053,
            -0.042538248002529144,
            -0.030007269233465195,
            -0.02909640036523342,
            -0.08217716217041016,
            -0.05211951211094856,
            -0.0243877861648798,
            -0.06838974356651306,
            -0.016792358830571175,
            -0.03908427804708481,
            0.017383113503456116,
            0.01139202993363142,
            -0.0158644150942564,
            0.0050325882621109486,
            -0.03708823397755623,
            0.021872946992516518,
            -0.018284346908330917,
            0.030469605699181557,
            -0.02461494319140911,
            0.029140831902623177,
            -0.006641413550823927,
            -0.017350437119603157,
            0.016732094809412956,
            0.008121086284518242,
            0.044557180255651474,
            0.0329187847673893,
            -0.007532721851021051,
            -0.007146068383008242,
            0.03311777859926224,
            -0.011408088728785515,
            -0.008009599521756172,
            -0.06236017122864723,
            -0.039169665426015854,
            -0.06667838990688324,
            -0.026163659989833832,
            -0.031842030584812164,
            0.010302443988621235,
            -0.0009179313783533871,
            -0.034802425652742386,
            0.006286003161221743,
            -0.012648237869143486,
            -0.02153836563229561,
            0.03348684310913086,
            -0.027434300631284714,
            0.024970442056655884,
            -0.01886153221130371,
            0.0007446592207998037,
            0.034197788685560226,
            0.02588418312370777,
            0.018961003050208092,
            0.018501034006476402,
            -0.012802770361304283,
            0.0063008712604641914,
            0.005364162847399712,
            -0.023611141368746758,
            -0.023388881236314774,
            -0.008717573247849941,
            -0.028601469472050667,
            -0.06061592698097229,
            -0.015062578022480011,
            -0.031063038855791092,
            -0.012616370804607868,
            -0.04238978028297424,
            -0.04015761986374855,
            -4.81413553643506e-05,
            0.007978957146406174,
            0.008093473501503468,
            -0.039596617221832275,
            -0.00113497709389776,
            -0.00229449151083827,
            -0.02979751117527485,
            -0.037455204874277115,
            -0.04232209175825119,
            -0.01164363231509924,
            -0.038130681961774826,
            -0.03220643103122711,
            -0.01917083188891411,
            -0.03326079621911049,
            0.011454266496002674,
            -0.016934873536229134,
            -0.03600780665874481,
            -0.024127330631017685,
            -0.03400766849517822,
            -0.0184970460832119,
            0.01800522953271866,
            0.0019429685780778527,
            -0.005588192027062178,
            -0.018423959612846375,
            -0.04693425074219704,
            -0.001336802146397531,
            -0.054328806698322296,
            0.010698458179831505,
            0.006906907539814711,
            0.013459094800055027,
            -0.0002987849002238363,
            -0.008712900802493095,
            -0.002286304486915469,
            0.005774838849902153,
            0.005461693275719881,
            -0.02517428807914257,
            -0.014469637535512447,
            0.008257871493697166,
            0.007583582308143377,
            -0.018542010337114334,
            0.0028887467924505472,
            -0.024518528953194618,
            0.0029546446166932583,
            -0.019070297479629517,
            -0.019274238497018814,
            0.0031823348253965378,
            0.002640386112034321,
            0.039689645171165466,
            0.0036669496912509203,
            -0.04303005337715149,
            0.00461515923961997,
            -0.036348436027765274,
            -0.04395684972405434,
            -0.03614330291748047,
            -0.020561836659908295,
            -0.05187523365020752,
            -0.004857185296714306,
            -0.01551729440689087,
            0.01830431818962097,
            0.032437678426504135,
            0.014087248593568802,
            -0.008340880274772644,
            -0.006802567280828953,
            -0.010983992367982864,
            -0.0168674997985363,
            -0.014931372366845608,
            -0.001956047024577856,
            -0.008691271767020226,
            -0.050624165683984756,
            -0.06386959552764893,
            -0.007428599055856466,
            0.0007116723572835326,
            -0.055582404136657715,
            -0.04512980952858925,
            -0.028668547049164772
        ],
        [
            0.010479816235601902,
            -0.002197079360485077,
            -0.009811691008508205,
            0.0009816924575716257,
            0.0410011000931263,
            -0.008780168369412422,
            0.037473857402801514,
            -0.008852995000779629,
            0.0011311298003420234,
            0.027948593720793724,
            -0.015502561815083027,
            0.0443015992641449,
            0.023435819894075394,
            0.022688254714012146,
            0.04586555436253548,
            -0.012980298139154911,
            -0.014442029409110546,
            0.023756779730319977,
            0.021296024322509766,
            -0.0024661291390657425,
            -0.014960608445107937,
            0.04557434096932411,
            -0.01290715578943491,
            0.006177619099617004,
            0.029485240578651428,
            0.008097694255411625,
            0.02028859406709671,
            -0.01266406662762165,
            -0.021069219335913658,
            0.03278475999832153,
            0.0020058501977473497,
            -0.010911153629422188,
            0.0018418109975755215,
            0.012897848151624203,
            0.020879417657852173,
            0.03449683636426926,
            0.01744171977043152,
            0.04582030326128006,
            0.017854804173111916,
            0.018474562093615532,
            0.046789925545454025,
            -0.015964744612574577,
            0.024657804518938065,
            0.023091651499271393,
            0.0009504008339717984,
            -0.05116496980190277,
            0.001577535760588944,
            -0.04172561690211296,
            -0.02515491470694542,
            -0.019533174112439156,
            0.01220822986215353,
            0.021769581362605095,
            0.029476070776581764,
            0.040765970945358276,
            0.011986151337623596,
            -0.028214575722813606,
            0.03989151120185852,
            0.012707465328276157,
            0.050146859139204025,
            0.036646611988544464,
            0.052262984216213226,
            0.015124854631721973,
            0.0574488639831543,
            0.04233098030090332,
            0.0516446977853775,
            0.01747456192970276,
            0.020642289891839027,
            0.008897506631910801,
            -0.005700618959963322,
            -0.00064095325069502,
            -0.037592969834804535,
            -0.06686855107545853,
            -0.052786730229854584,
            -0.05353501811623573,
            -0.04583340510725975,
            -0.007653825916349888,
            -0.052479520440101624,
            -0.03168078511953354,
            -0.018432732671499252,
            0.006705818697810173,
            -0.03371720016002655,
            0.01591041311621666,
            0.010170502588152885,
            0.012596476823091507,
            0.006166751030832529,
            -0.018075598403811455,
            0.026321114972233772,
            0.015989990904927254,
            0.012188012711703777,
            0.05041502043604851,
            0.06412022560834885,
            0.04544687643647194,
            0.045532770454883575,
            0.04392481595277786,
            0.05965900048613548,
            -0.004123249091207981,
            0.0471118688583374,
            0.01848091185092926,
            -0.037932559847831726,
            -0.030915580689907074,
            -0.04845821112394333,
            -0.04891951382160187,
            -0.04641427472233772,
            -0.01887432672083378,
            -0.04895409196615219,
            0.01982874423265457,
            -0.02611417882144451,
            0.020072706043720245,
            -0.014102748595178127,
            0.017289770767092705,
            0.006522638723254204,
            0.00918211042881012,
            -0.021508414298295975,
            -0.008810171857476234,
            0.01640615053474903,
            0.04021096229553223,
            0.06011463701725006,
            0.06278583407402039,
            0.0037445519119501114,
            0.06453575938940048,
            0.017880301922559738,
            0.02143939584493637,
            0.018118401989340782,
            0.010773946531116962,
            0.007730802986770868,
            0.005387683864682913,
            -0.018453748896718025,
            -0.050032105296850204,
            -0.05014834180474281,
            -0.017704524099826813,
            -0.059615861624479294,
            0.01177983172237873,
            -0.01119211595505476,
            0.002747944323346019,
            -0.03231591358780861,
            0.02319025993347168,
            0.011745594441890717,
            -0.03200117126107216,
            -0.03671207278966904,
            0.018745727837085724,
            -0.0036846352741122246,
            0.017057018354535103,
            0.033661916851997375,
            0.022221002727746964,
            0.015426566824316978,
            0.02125534415245056,
            0.030552951619029045,
            -0.0032251167576760054,
            0.023205438628792763,
            -0.002664701547473669,
            0.012697095051407814,
            -0.016712523996829987,
            0.023159144446253777,
            0.026486724615097046,
            -0.030298177152872086,
            -0.04332601651549339,
            0.01664874516427517,
            0.022153818979859352,
            0.006025087088346481,
            -0.008206024765968323,
            -0.017866946756839752,
            0.026941634714603424,
            0.010091977193951607,
            -0.00019992634770460427,
            -0.01565256342291832,
            0.0397694855928421,
            0.034146808087825775,
            -0.003299317555502057,
            -0.020976640284061432,
            -0.0031163205858319998,
            0.02269587479531765,
            -0.007604137063026428,
            0.002845530165359378,
            -0.0018462291918694973,
            -0.0019580540247261524,
            0.04503398388624191,
            0.028295818716287613,
            0.0029526716098189354,
            0.023344993591308594,
            0.03790811821818352,
            -0.00961965974420309,
            0.0015134332934394479,
            -0.023541497066617012,
            -0.021959949284791946,
            -0.016741309314966202,
            0.046579811722040176,
            0.023892095312476158,
            0.033951885998249054,
            0.042363490909338,
            0.0172265712171793,
            -0.027384690940380096,
            0.030056502670049667,
            0.02758149430155754,
            0.026649825274944305,
            0.030023591592907906,
            0.003255150280892849,
            0.035422760993242264,
            0.021368199959397316,
            0.031931836158037186,
            0.048130232840776443,
            0.03633537143468857,
            0.03838976100087166,
            0.016087699681520462,
            0.02810593508183956,
            0.04501580446958542,
            0.005174078047275543,
            0.010102344676852226,
            0.04412567615509033,
            0.05278219282627106,
            0.027894774451851845,
            -0.005368341691792011,
            0.016201527789235115,
            0.005668471101671457,
            0.003837284864857793,
            -0.004651844501495361,
            0.024786343798041344,
            0.0021170107647776604,
            0.0381803959608078,
            0.03280239552259445,
            -0.008602527901530266,
            -0.02160600945353508,
            -0.0036012984346598387,
            -0.004513769876211882,
            0.0031740416307002306,
            -0.0074629937298595905,
            -0.0018002329161390662,
            0.042406994849443436,
            0.02907639369368553,
            -0.010171034373342991,
            0.04157700389623642,
            0.05462339147925377,
            0.039502840489149094,
            0.010884939692914486,
            0.040356867015361786,
            0.0035568620078265667,
            0.01166240032762289,
            0.03936418890953064,
            -0.007489535491913557,
            -0.010234612971544266,
            0.0003512797993607819,
            -0.0022692198399454355,
            -0.007424979005008936,
            0.05307295173406601,
            0.03133001923561096,
            0.024244166910648346,
            0.0029407062102109194,
            -0.008865486830472946,
            -0.0049341097474098206,
            -0.029461100697517395,
            -0.01095498539507389,
            -0.024002553895115852,
            -0.029858971014618874,
            -0.011159252375364304,
            0.03427007049322128,
            -0.004905839916318655,
            0.009878833778202534,
            -0.00020683217735495418,
            -0.01801660843193531,
            0.03885771334171295,
            0.0397665835916996,
            -0.006786789745092392,
            0.008053026162087917,
            0.017836961895227432,
            0.03699974715709686,
            -0.01629624329507351,
            0.02151215262711048,
            -0.014755367301404476,
            -0.010015718638896942,
            0.013770987279713154,
            0.013788814656436443,
            0.01708664931356907,
            0.012622048147022724,
            0.012195833027362823,
            -0.01736108958721161,
            0.002223076531663537,
            -0.0004618320381268859,
            0.03137512505054474,
            0.02993781305849552,
            0.019628051668405533,
            0.005809776019304991,
            0.011800497770309448,
            0.04085962846875191,
            0.005183210130780935,
            0.03272022306919098,
            -0.007911983877420425,
            0.021164456382393837,
            -0.0010095504112541676,
            -0.0006967833614908159,
            0.013284371234476566,
            0.03184613212943077,
            0.0038146446458995342,
            -0.0008194613619707525,
            -0.04560837894678116,
            -0.05121355503797531,
            -0.04768401384353638,
            -0.03046679124236107,
            -0.03377915546298027,
            0.0003919602313544601,
            0.010917623527348042,
            0.0440535731613636,
            0.031591594219207764,
            0.04039956256747246,
            0.04038666933774948,
            0.020926469936966896,
            -0.004413989372551441,
            0.042937375605106354,
            0.0526537150144577,
            0.023282185196876526,
            -0.0065926662646234035,
            0.012808759696781635,
            0.036308083683252335,
            -0.01944499835371971,
            -0.035020533949136734,
            -0.03005117177963257,
            0.03991706296801567,
            -0.012451482005417347,
            0.011154885403811932,
            -0.008020569570362568,
            0.02690996788442135,
            -0.01837426796555519,
            -0.022556865587830544,
            -0.09224722534418106,
            -0.060859862715005875,
            -0.0820499062538147,
            0.005354601889848709,
            0.007965076714754105,
            0.010304886847734451,
            0.03028961829841137,
            -0.0057489401660859585,
            -0.011344309896230698,
            0.004751172382384539,
            0.005732595454901457,
            -0.000882383028510958,
            0.0012226322432979941,
            0.023128021508455276,
            0.07413548231124878,
            -0.023884646594524384,
            0.012399875558912754,
            0.026472516357898712,
            -0.006600311957299709,
            0.002209725556895137,
            -0.012715008109807968,
            0.025023145601153374,
            -0.03852257877588272,
            -0.01164308562874794,
            0.012832491658627987,
            -0.005134827457368374,
            -0.05738911032676697,
            -0.014456101693212986,
            -0.024127837270498276,
            -0.06429723650217056,
            -0.07710354030132294,
            -0.01311181578785181,
            -0.05263494327664375,
            0.017597537487745285,
            0.016995862126350403,
            0.025083059445023537,
            -0.010971412993967533,
            0.021488837897777557,
            -0.008855214342474937,
            0.038787517696619034,
            0.024668049067258835,
            0.06044400855898857,
            0.00884561613202095,
            0.03871994838118553,
            0.012554609216749668,
            -0.005419934634119272,
            0.0018246611580252647,
            -0.00010623982234392315,
            0.01803264021873474,
            0.005922417622059584,
            -0.015577595680952072,
            -0.04702571779489517,
            -0.04698845371603966,
            0.02300582453608513,
            0.013917136006057262,
            -0.043754689395427704,
            -0.024454869329929352,
            -0.07525738328695297,
            -0.07170387357473373,
            -0.028792046010494232,
            -0.007227027323096991,
            -0.04763944447040558,
            -0.050310637801885605,
            0.02168840914964676,
            -0.023775512352585793,
            0.04149119555950165,
            -0.00751316687092185,
            0.025557344779372215,
            0.05091255530714989,
            0.0569411925971508,
            0.06418817490339279,
            0.025074170902371407,
            -0.015991907566785812,
            -0.017429422587156296,
            -0.007907024584710598,
            -0.002748114289715886,
            0.006637548562139273,
            -0.014666315168142319,
            -0.0324225053191185,
            -0.010753445327281952,
            0.0035721345338970423,
            0.027042100206017494,
            -0.030299333855509758,
            -0.005851843394339085,
            -0.002555934013798833,
            -0.05992422252893448,
            -0.02672921121120453,
            -0.010059750638902187,
            -0.01591644063591957,
            0.011873185634613037,
            -0.012874624691903591,
            -0.02461094781756401,
            0.0017482145922258496,
            0.042394157499074936,
            0.03403470292687416,
            0.029132196679711342,
            0.03621360659599304,
            0.02663479931652546,
            0.03284293785691261,
            0.002916991477832198,
            0.01471591368317604,
            0.021467378363013268,
            -0.02097252942621708,
            0.02458593249320984,
            -0.020113511011004448,
            0.022822177037596703,
            -0.030323350802063942,
            0.012214163318276405,
            -0.0392557792365551,
            -0.03316329047083855,
            -0.033241964876651764,
            -0.02525356411933899,
            -0.05095912516117096,
            -0.022646043449640274,
            -0.05535531044006348,
            -0.03181041404604912,
            -0.04640934243798256,
            -0.02444557473063469,
            0.016256023198366165,
            -0.02019018493592739,
            0.010661076754331589,
            0.02741635963320732,
            0.01125925313681364,
            0.01709374226629734,
            0.016067970544099808,
            0.006069558672606945,
            -0.01831904612481594,
            0.04461811110377312,
            -0.0212785042822361,
            0.007987678982317448,
            -0.022848574444651604,
            0.011293444782495499,
            0.02491408959031105,
            -0.013480447232723236,
            0.026445012539625168,
            -0.008440661244094372,
            0.0034957171883434057,
            -0.0014675677521154284,
            -0.018596317619085312,
            -0.006411456968635321,
            -0.018697464838624,
            0.017151014879345894,
            -0.030315497890114784,
            0.0024698139168322086,
            0.005349563434720039,
            0.020164594054222107,
            0.00953585747629404,
            0.03170511871576309,
            0.04968370124697685,
            0.009027372114360332,
            0.04073338210582733,
            0.038482315838336945,
            0.022524647414684296,
            -0.0354095958173275,
            -0.03494264930486679,
            0.012591447681188583,
            -0.004192041698843241,
            0.004683705512434244,
            -0.012319986708462238,
            0.03808409720659256,
            0.038863714784383774,
            0.009913048706948757,
            0.0044898116029798985,
            -0.023194298148155212,
            0.023914063349366188,
            0.02140451967716217,
            -0.008678646758198738,
            0.02178955264389515,
            0.009698108769953251,
            0.021731575950980186,
            -0.00558698084205389,
            0.027615590021014214,
            0.017010735347867012,
            0.021541235968470573,
            0.010889073833823204,
            0.016272705048322678,
            0.020382095128297806,
            -0.013898206874728203,
            0.006015488412231207,
            0.009457966312766075,
            0.01087274495512247,
            -0.024359283968806267,
            0.01272268034517765,
            0.0002517391985747963,
            0.009088928811252117,
            -0.013027012348175049,
            0.04481023550033569,
            0.05098682641983032,
            0.02614029496908188,
            0.0671633705496788,
            0.04920642822980881,
            0.0029987760353833437,
            -0.007461955770850182,
            0.04172439128160477,
            -0.015502451919019222,
            0.029790828004479408,
            0.025622393935918808,
            0.0011349107371643186,
            0.03258888050913811,
            -0.01971486397087574,
            0.02948225475847721,
            0.05010248348116875,
            0.03843841329216957,
            -0.016124848276376724,
            -0.023143446072936058,
            0.003853435395285487,
            0.005729835946112871,
            -0.0020727666560560465,
            -0.03383568674325943,
            -0.03274989873170853,
            -0.042572151869535446,
            0.025371525436639786,
            0.00342153781093657,
            -0.0013518233317881823,
            0.05183803662657738,
            0.006768640596419573,
            0.06407634913921356,
            0.02241905964910984,
            0.015203043818473816,
            0.010167460888624191,
            0.062297940254211426,
            0.0236410703510046,
            0.0049879648722708225,
            0.04911021888256073,
            0.003274340648204088,
            -0.00014364445814862847,
            0.027019979432225227,
            0.03584650903940201,
            -0.008325261995196342,
            0.004364611580967903,
            0.028268542140722275,
            0.011786033399403095,
            0.003503090236335993,
            0.010881535708904266,
            0.01871611550450325,
            0.0030496041290462017,
            0.00807892344892025,
            0.02073739282786846,
            -0.022478019818663597,
            0.03265812247991562,
            0.04123060032725334,
            -0.000906196772120893,
            0.017530016601085663,
            0.04875228926539421,
            0.004870186559855938,
            0.029493099078536034,
            0.04443968087434769,
            0.05772988498210907,
            0.02728411555290222,
            0.04572010785341263,
            0.02592993900179863,
            0.02305709198117256,
            0.0388362891972065,
            0.01127235684543848,
            0.0036122838500887156,
            0.01621950976550579,
            0.0013634139904752374,
            -0.011767253279685974,
            0.05359184741973877,
            -0.0023626196198165417,
            0.026205088943243027,
            0.017197957262396812,
            0.016908524557948112,
            -0.022629868239164352,
            -0.013470320962369442,
            0.0161089189350605,
            -0.03178020566701889,
            -0.00825941190123558,
            0.04349122568964958,
            0.040355879813432693,
            0.025699926540255547,
            0.05384153127670288,
            0.011652384884655476,
            -0.0021728421561419964,
            0.030875887721776962,
            -0.00144185998942703,
            0.07781177759170532,
            0.05258900672197342,
            0.015099470503628254,
            0.05514014884829521,
            0.033698827028274536,
            0.03330245986580849,
            0.058379869908094406,
            0.013868761248886585,
            -0.002801189897581935,
            0.05255728214979172,
            0.007487056311219931,
            -0.010490486398339272,
            0.01379286590963602,
            0.015392922796308994,
            -0.007376295048743486,
            -0.037219610065221786,
            0.0121375797316432,
            -0.0016139440704137087,
            0.036343932151794434,
            -0.022718746215105057,
            0.007330858148634434,
            -0.0010985331609845161,
            -0.004244451876729727,
            -0.021033059805631638,
            0.027180155739188194,
            -0.01887398026883602,
            0.003989259712398052,
            0.03506212681531906,
            0.010904955677688122,
            0.034456413239240646,
            0.016253219917416573,
            0.061158686876297,
            0.008825557306408882,
            0.04340030997991562,
            0.012369785457849503,
            0.03577965497970581,
            0.04164627939462662,
            -0.019688136875629425,
            0.02504182606935501,
            0.02105661854147911,
            0.022254908457398415,
            -0.006055925041437149,
            0.0022523251827806234,
            -0.03813346475362778,
            0.015289952047169209,
            -0.028643129393458366,
            0.02081356756389141,
            -0.010335765779018402,
            0.021942520514130592,
            0.001520138350315392,
            -0.002015934558585286,
            -0.0007979735382832587,
            0.013167091645300388,
            -0.03952915966510773,
            0.011297800578176975,
            0.00178042973857373,
            0.013757207430899143,
            0.02618940733373165,
            0.002500282134860754,
            0.045763153582811356,
            0.0020854659378528595,
            -0.005776334088295698,
            -0.00010775253758765757,
            0.02476547099649906,
            0.026725517585873604,
            -0.010517194867134094,
            -0.004417661111801863,
            -0.017932282760739326,
            0.012413077987730503,
            -0.017272930592298508,
            0.015371300280094147,
            -0.03840106353163719,
            -0.03710203990340233,
            0.01470510009676218,
            -0.014494828879833221,
            -0.015532939694821835,
            0.005561263300478458,
            -0.011796621605753899,
            0.006909385323524475,
            0.024127468466758728,
            0.012103415094316006,
            -0.02451300248503685,
            -0.03307703882455826,
            -0.042611829936504364,
            -0.003432653844356537,
            -0.009441609494388103,
            -0.04961121082305908,
            -0.009100185707211494,
            0.014231237582862377,
            -0.002941301790997386,
            -0.03850578889250755,
            0.007252279669046402,
            0.015657711774110794,
            -0.03046705201268196,
            -0.0021573153790086508,
            0.020886510610580444,
            -0.02743763104081154,
            -0.03263742849230766,
            0.01374970655888319,
            0.011271476745605469,
            0.010263481177389622,
            -0.017892498522996902,
            0.013509334065020084,
            0.030263645574450493,
            -0.005834934301674366,
            -0.015828199684619904,
            0.033460114151239395,
            0.02365289069712162,
            0.0028648932930082083,
            0.0109108230099082,
            -0.012648433446884155,
            -0.023268194869160652,
            -0.04293735325336456,
            -0.02712199278175831,
            -0.030524447560310364,
            -0.07038230448961258,
            -0.015927396714687347,
            -0.01486274041235447,
            -0.02507800981402397,
            -0.03165285289287567,
            -0.010063741356134415,
            0.005340412724763155,
            0.011552209965884686,
            -0.04757498577237129,
            -0.02656739577651024,
            0.015841808170080185,
            0.0036613624542951584,
            0.024661293253302574,
            0.03542901575565338,
            0.03052329458296299,
            -0.008089112117886543,
            -0.011440671980381012,
            -0.0046993037685751915,
            -0.004793568979948759,
            -0.01849312148988247,
            0.02538886107504368,
            -0.010724245570600033,
            0.017078842967748642,
            -0.001183739979751408,
            -0.004284730181097984,
            -0.023079080507159233,
            -0.04012279957532883,
            -0.07684314250946045,
            -0.07155744731426239,
            -0.08517975360155106,
            -0.04269518703222275,
            -0.05939347296953201,
            -0.044348228722810745,
            -0.06830617040395737,
            -0.005665762349963188,
            -0.056649964302778244,
            0.0031259835232049227,
            -0.021510882303118706,
            -0.029499413445591927,
            -0.017488157376646996,
            0.010228182189166546,
            -0.019121680408716202,
            0.03375444561243057,
            0.03072046861052513,
            0.033735912293195724,
            -0.022678513079881668,
            0.04597168043255806,
            0.007641783449798822,
            -0.004905468784272671,
            0.011914083734154701,
            -0.017323339357972145,
            0.00782323069870472,
            -0.026652829721570015,
            -0.04806741327047348,
            -0.020806897431612015,
            -0.056651972234249115,
            -0.04097175598144531,
            -0.08078386634588242,
            -0.05418981611728668,
            -0.0403473861515522,
            -0.05411319434642792,
            -0.0863674059510231,
            -0.07996106892824173,
            -0.023818692192435265,
            -0.06188732758164406,
            -0.028188230469822884,
            -0.025026835501194,
            0.04069308191537857,
            0.003397562773898244,
            -0.000942510727327317,
            0.04530508443713188,
            0.03786742687225342
        ],
        [
            8.415000775130466e-05,
            -0.013112442567944527,
            0.006166061852127314,
            0.004715864080935717,
            0.01088323537260294,
            0.025002311915159225,
            -0.0016594992484897375,
            -0.02745082601904869,
            -0.009211048483848572,
            0.019895039498806,
            0.020165277644991875,
            0.0053363642655313015,
            0.0055169290862977505,
            -0.010143155232071877,
            -0.0015851870412006974,
            -0.011448046192526817,
            -0.028904614970088005,
            0.010706284083425999,
            0.0023560193367302418,
            0.028460392728447914,
            -0.019545122981071472,
            0.021176554262638092,
            0.029584741219878197,
            0.03192784637212753,
            0.006408120971173048,
            0.014801274985074997,
            -0.012133310548961163,
            -0.01744609698653221,
            0.02744433656334877,
            0.004668723791837692,
            -0.030722560361027718,
            0.01742882840335369,
            -0.02427583374083042,
            0.024369116872549057,
            0.01031847670674324,
            0.02266540564596653,
            -0.026901910081505775,
            0.01068083755671978,
            -0.008894920349121094,
            0.03153194487094879,
            0.037034593522548676,
            0.028466420248150826,
            0.03758004307746887,
            0.01682204380631447,
            0.03743685036897659,
            0.019583838060498238,
            0.02810165472328663,
            0.0194565299898386,
            -0.01975262723863125,
            -0.02564769983291626,
            -0.009516344405710697,
            0.04085424914956093,
            0.03580011427402496,
            0.011239930987358093,
            -0.011353492736816406,
            0.002861794549971819,
            0.023863855749368668,
            -0.03073388896882534,
            -0.013598045334219933,
            0.010181036777794361,
            0.025271747261285782,
            0.004631445277482271,
            0.030523141846060753,
            0.020818835124373436,
            -0.0013660069089382887,
            0.031788844615221024,
            -0.03328167274594307,
            0.03475436568260193,
            0.026706725358963013,
            0.038143035024404526,
            0.04690830782055855,
            0.03330235183238983,
            0.050877898931503296,
            0.026298508048057556,
            0.009677289985120296,
            0.009169305674731731,
            -0.000359450961695984,
            0.01773589663207531,
            0.012705650180578232,
            0.0007345261983573437,
            -0.014867390505969524,
            -0.03335323929786682,
            0.011052186600863934,
            -0.03260992467403412,
            -0.008272487670183182,
            0.032900694757699966,
            -0.019638119265437126,
            0.01350061222910881,
            -0.03279135748744011,
            -0.012693159282207489,
            -0.002953584073111415,
            -0.023572398349642754,
            0.014338926412165165,
            0.035680003464221954,
            -0.01676291972398758,
            0.019416451454162598,
            0.048876531422138214,
            0.019798746332526207,
            0.002178106689825654,
            0.05330377444624901,
            0.03093886934220791,
            0.05654372274875641,
            0.01476995088160038,
            0.023164106532931328,
            0.017862366512417793,
            -0.027270112186670303,
            -0.012790380977094173,
            -0.0015135443536564708,
            -0.026656536385416985,
            0.017031246796250343,
            -0.00740788271650672,
            0.01697242632508278,
            -0.01967528462409973,
            0.008267174474895,
            -0.013015175238251686,
            0.0018455545650795102,
            -0.017969025298953056,
            -0.015626059845089912,
            -0.010811113752424717,
            0.03359317034482956,
            0.0031096485909074545,
            -0.007721760310232639,
            0.028160324320197105,
            0.03353677690029144,
            0.03004557453095913,
            0.02214336208999157,
            -0.01031962875276804,
            0.0333138033747673,
            0.01237277127802372,
            -0.0014212236274033785,
            0.0004898795741610229,
            0.009616953320801258,
            0.011967872269451618,
            -0.02269298955798149,
            0.02535823918879032,
            -0.025546381250023842,
            -0.008685818873345852,
            -0.005429929122328758,
            0.026716163381934166,
            -0.037344545125961304,
            0.026016633957624435,
            0.03062012605369091,
            0.013363117352128029,
            0.025291498750448227,
            0.002488564234226942,
            0.03360861912369728,
            0.03568258136510849,
            -0.0026298132725059986,
            0.002058342332020402,
            -0.011435606516897678,
            0.00012969769886694849,
            0.04586333408951759,
            0.03496941551566124,
            0.04951534420251846,
            0.02374333143234253,
            0.03728095442056656,
            -0.014912135899066925,
            0.018696649000048637,
            0.03803267702460289,
            0.018504593521356583,
            -0.008363242261111736,
            -0.015299230813980103,
            0.020977845415472984,
            -0.03622164577245712,
            0.018810736015439034,
            0.0040322281420230865,
            -0.03723237290978432,
            -0.03248197212815285,
            -0.01107524149119854,
            0.012398360297083855,
            0.014707256108522415,
            0.02669657953083515,
            0.030802594497799873,
            0.003906858619302511,
            -0.0025237933732569218,
            0.0015068011125549674,
            -0.017396241426467896,
            0.0011877778451889753,
            0.028196513652801514,
            0.025321653112769127,
            0.015770088881254196,
            0.03781963884830475,
            -0.016563139855861664,
            -0.0013211398618295789,
            0.02038072794675827,
            -0.02286071516573429,
            -0.024860413745045662,
            -0.018675582483410835,
            0.031872835010290146,
            -0.020943980664014816,
            0.01626068353652954,
            -0.03259274363517761,
            0.01390016358345747,
            -0.0271350909024477,
            -0.007149608805775642,
            0.0024074858520179987,
            -0.0069909789599478245,
            -0.011440105736255646,
            0.024625007063150406,
            0.0034335539676249027,
            -0.016632314771413803,
            -0.022161195054650307,
            -0.015948191285133362,
            0.040037743747234344,
            0.04503222554922104,
            -0.021461550146341324,
            0.022411447018384933,
            0.013573095202445984,
            0.007200420834124088,
            0.013497788459062576,
            -0.02475355938076973,
            0.013336890377104282,
            0.0024350180756300688,
            0.04611001908779144,
            0.006451870314776897,
            0.013574318028986454,
            0.01804746501147747,
            -0.03717932850122452,
            -0.021219342947006226,
            0.005919544026255608,
            -0.033119190484285355,
            0.026885753497481346,
            -0.0037071560509502888,
            -0.008322873152792454,
            0.014091654680669308,
            -0.016525302082300186,
            -0.004221369978040457,
            0.01598655804991722,
            0.01759183593094349,
            0.010468129999935627,
            0.02063765563070774,
            -0.002562770154327154,
            0.024038562551140785,
            -0.02298296056687832,
            0.0024959382135421038,
            0.007528124377131462,
            -0.018242934718728065,
            -0.0026356109883636236,
            -0.019600380212068558,
            0.04024530202150345,
            0.026607127860188484,
            -0.000165843142895028,
            0.06346176564693451,
            0.010167711414396763,
            0.03622552752494812,
            -0.0055858539417386055,
            -0.0006300274399109185,
            0.020246047526597977,
            -0.007143738213926554,
            -0.008603503927588463,
            0.03079988993704319,
            -0.011120252311229706,
            -0.02451431378722191,
            0.01796211116015911,
            0.01773367077112198,
            0.00643262080848217,
            0.038507211953401566,
            0.029430074617266655,
            0.029854392632842064,
            -0.019643407315015793,
            -0.009533257223665714,
            -0.0043952022679150105,
            -0.012338781729340553,
            0.02132248319685459,
            0.0213214922696352,
            0.036759842187166214,
            0.050445571541786194,
            0.005995702464133501,
            0.055130425840616226,
            0.01319175772368908,
            0.05273396149277687,
            0.02518993429839611,
            0.020105261355638504,
            -0.005255406256765127,
            0.01653175614774227,
            -0.0010753824608400464,
            -0.03359658643603325,
            0.0054031782783567905,
            0.029461482539772987,
            -0.024551842361688614,
            0.02453712373971939,
            0.02177516371011734,
            0.010073394514620304,
            0.0074175274930894375,
            0.010481046512722969,
            0.004995045717805624,
            0.04962910711765289,
            0.03317166492342949,
            0.00040745496517047286,
            0.022006135433912277,
            0.0038155249785631895,
            -0.034098464995622635,
            -0.0016973817255347967,
            0.03155221790075302,
            0.026406390592455864,
            0.04962761327624321,
            0.06457548588514328,
            0.028182286769151688,
            0.04323001578450203,
            -0.002479040762409568,
            -0.01740790344774723,
            -0.028333818539977074,
            -0.020465005189180374,
            -0.03192925080657005,
            -0.02632027491927147,
            -0.00276372954249382,
            -0.037133924663066864,
            -0.01635558344423771,
            0.015698125585913658,
            0.009727374650537968,
            -0.00769166462123394,
            -0.007514548487961292,
            0.021074792370200157,
            -0.02101416327059269,
            -0.01424282044172287,
            -0.015848100185394287,
            -0.002009360818192363,
            -0.01679486781358719,
            0.01480054296553135,
            -0.004527454264461994,
            0.026086971163749695,
            0.007356975693255663,
            0.025224264711141586,
            0.01798536442220211,
            0.02564685232937336,
            0.04956861585378647,
            0.02332768216729164,
            0.04152456298470497,
            -0.0035038674250245094,
            -0.017366496846079826,
            -0.04774373769760132,
            -0.058803707361221313,
            -0.010983808897435665,
            -0.023854343220591545,
            0.004413815680891275,
            -0.0004881308996118605,
            -0.025322603061795235,
            -0.021949617192149162,
            0.008941941894590855,
            0.043770816177129745,
            -0.013311508111655712,
            -0.0230131633579731,
            0.006614939775317907,
            0.005675726570188999,
            0.01918686181306839,
            -0.02673972211778164,
            -0.013800227083265781,
            0.012257592752575874,
            0.008823560550808907,
            0.004328540526330471,
            0.04750258848071098,
            0.031548723578453064,
            0.021312961354851723,
            0.028120990842580795,
            0.034906547516584396,
            0.019220607355237007,
            -0.02452646568417549,
            -0.009373288601636887,
            -0.020437190309166908,
            -0.049062516540288925,
            -0.021494761109352112,
            -0.017521103844046593,
            -0.019588317722082138,
            0.03010765090584755,
            0.024218598380684853,
            0.010255255736410618,
            -0.01194957084953785,
            0.01869407296180725,
            0.034633100032806396,
            0.032411329448223114,
            -0.028538567945361137,
            -0.015464192256331444,
            0.029325801879167557,
            0.013620778918266296,
            -0.03992066904902458,
            -0.029905637726187706,
            0.001748940092511475,
            0.0007234514923766255,
            0.026925012469291687,
            0.05012660101056099,
            0.03949277475476265,
            0.007561155129224062,
            -0.004638024140149355,
            -0.02603374607861042,
            0.013473447412252426,
            -0.00592399388551712,
            -0.0018390519544482231,
            0.006904727779328823,
            -0.03815441206097603,
            -0.020877540111541748,
            -0.03170544654130936,
            -0.035955026745796204,
            -0.02468423917889595,
            -0.02083621546626091,
            0.03344151750206947,
            0.044135142117738724,
            0.026264838874340057,
            0.0008714749128557742,
            0.03271404281258583,
            0.009128428064286709,
            -0.032866183668375015,
            0.012240647338330746,
            0.029702607542276382,
            -0.014137549325823784,
            0.02139945514500141,
            0.00475288275629282,
            0.04384002462029457,
            0.06399606168270111,
            -0.009970230050384998,
            0.018793195486068726,
            0.02997470274567604,
            -0.02801704779267311,
            -0.03176281601190567,
            -0.04126329347491264,
            0.005406192969530821,
            -0.0449422262609005,
            -0.03770683705806732,
            0.010938633233308792,
            0.008281837217509747,
            -0.006953401956707239,
            0.019931817427277565,
            -0.006986803840845823,
            0.023405632004141808,
            0.01388996560126543,
            0.008465389721095562,
            0.018404465168714523,
            0.004178230185061693,
            0.027150267735123634,
            -0.03923540934920311,
            -0.011705737560987473,
            0.024915453046560287,
            0.00423700176179409,
            0.013039273209869862,
            0.05794404074549675,
            0.019480830058455467,
            0.03756186366081238,
            0.014083708636462688,
            0.021227668970823288,
            -0.037916410714387894,
            -0.014998340047895908,
            -0.03960205614566803,
            -0.04623976722359657,
            -0.04965546354651451,
            -0.04510440304875374,
            -0.04160042107105255,
            0.012155228294432163,
            0.00025461174664087594,
            0.03653031215071678,
            0.005883573554456234,
            -0.003440369386225939,
            0.007449374999850988,
            -0.030582180246710777,
            -0.03993428125977516,
            -0.009845503605902195,
            -0.027350619435310364,
            0.00942247174680233,
            0.009325611405074596,
            0.0123471450060606,
            0.04354783892631531,
            0.03756320849061012,
            0.0020127329044044018,
            0.019244223833084106,
            0.0239214189350605,
            -0.016085682436823845,
            -0.025924868881702423,
            -0.03779575601220131,
            -0.01251829881221056,
            -0.04765470325946808,
            -0.0010331437224522233,
            -0.03042711317539215,
            -0.02267572283744812,
            -0.019995711743831635,
            -0.02407296746969223,
            -0.0364299900829792,
            -0.03087688237428665,
            -0.02039334736764431,
            -0.027877654880285263,
            0.022010134533047676,
            0.0125973429530859,
            -0.02658338099718094,
            0.024486055597662926,
            -0.008424925617873669,
            -0.04878756403923035,
            0.003905679564923048,
            -0.017922665923833847,
            0.03805778920650482,
            -0.01299278810620308,
            0.03533070906996727,
            0.0441301167011261,
            0.019688863307237625,
            -0.016536640003323555,
            0.027082335203886032,
            0.016127973794937134,
            -0.027404457330703735,
            -0.04470037668943405,
            0.0010295896790921688,
            -0.023298339918255806,
            -0.004628543276339769,
            -0.009927568957209587,
            -0.049734096974134445,
            -0.02932536043226719,
            -0.01835222728550434,
            -0.006739522330462933,
            0.01984676532447338,
            0.002614583121612668,
            0.004227483179420233,
            0.03511946648359299,
            -0.028992244973778725,
            -0.03727663680911064,
            -0.036225996911525726,
            -0.022425681352615356,
            0.003162444569170475,
            0.003527275752276182,
            0.0010886781383305788,
            0.06433051824569702,
            0.05731353536248207,
            0.0015585850924253464,
            0.011697222478687763,
            -0.007094850298017263,
            0.001141999033279717,
            -0.05099925398826599,
            -0.034751325845718384,
            -0.05512756481766701,
            -0.059164222329854965,
            -0.007944553159177303,
            -0.04529564082622528,
            0.004926900379359722,
            -0.031247107312083244,
            0.00497755641117692,
            0.014059343375265598,
            0.011471601203083992,
            -0.024244077503681183,
            0.03188226744532585,
            0.020791593939065933,
            0.027867870405316353,
            -0.019912932068109512,
            -0.02121817320585251,
            -0.0298941470682621,
            0.013242999091744423,
            0.03987637162208557,
            0.021951856091618538,
            0.028717799112200737,
            0.0046814787201583385,
            0.004867902956902981,
            0.0058059003204107285,
            0.027633432298898697,
            -0.008815999142825603,
            -0.010329711250960827,
            -0.0031997801270335913,
            -0.02526739612221718,
            -0.01720527745783329,
            -0.03860091045498848,
            -0.04176337644457817,
            0.0011526241432875395,
            -0.004161854740232229,
            0.002152192173525691,
            -0.026978617534041405,
            -0.034552689641714096,
            0.0053895642049610615,
            0.01307729072868824,
            0.03762082755565643,
            -0.026276784017682076,
            0.00242291740141809,
            0.00915716215968132,
            -0.03068419173359871,
            -0.01943366415798664,
            -0.022866489365696907,
            0.028624294325709343,
            0.032374344766139984,
            0.009789093397557735,
            0.016887057572603226,
            0.04407314956188202,
            -0.012590703554451466,
            0.02010001800954342,
            -0.04882555827498436,
            0.0003080311289522797,
            -0.011958158574998379,
            -0.05479864776134491,
            -0.0662991851568222,
            -0.04348479583859444,
            -0.0695025771856308,
            -0.04606947302818298,
            -0.047178301960229874,
            -0.02914910949766636,
            -0.02299022488296032,
            0.018672548234462738,
            -0.004433163907378912,
            0.016652237623929977,
            0.001410239259712398,
            0.03623015806078911,
            -0.03208380937576294,
            -0.02876412123441696,
            0.016629477962851524,
            0.010102705098688602,
            -0.009635968133807182,
            -0.0015223787631839514,
            0.022198360413312912,
            0.03623051941394806,
            0.03715437278151512,
            0.0036352977622300386,
            -0.012522422708570957,
            -0.042201220989227295,
            0.00636736024171114,
            -0.060635775327682495,
            -0.03899827226996422,
            -0.02980012260377407,
            -0.01715449057519436,
            -0.021576451137661934,
            -0.05105768144130707,
            -0.05460192263126373,
            0.005260432604700327,
            0.013073376379907131,
            -0.049512170255184174,
            0.001495536882430315,
            -0.008677505888044834,
            0.017732316628098488,
            -0.018832478672266006,
            0.02052900195121765,
            -0.001661216956563294,
            0.0218365415930748,
            0.016383813694119453,
            -0.004553899634629488,
            -0.001827722298912704,
            0.04835181683301926,
            0.057797957211732864,
            0.027482863515615463,
            0.05252739414572716,
            0.028566420078277588,
            0.021851200610399246,
            -0.03600568696856499,
            -0.029097408056259155,
            0.0027471582870930433,
            -0.012592722661793232,
            -0.02497933991253376,
            -0.013860589824616909,
            -0.004356803372502327,
            -0.010409686714410782,
            -0.057032905519008636,
            -0.039277512580156326,
            0.013519818894565105,
            -0.03262554854154587,
            -0.022975731641054153,
            -0.0010860961629077792,
            -0.021268779411911964,
            0.03691720962524414,
            -0.006249489728361368,
            0.01694081351161003,
            -0.01841607131063938,
            0.014243027195334435,
            0.02185145951807499,
            -0.005774343386292458,
            0.03608525171875954,
            0.01579149439930916,
            -0.009553099982440472,
            0.041264209896326065,
            -0.0019289165502414107,
            0.02254946529865265,
            0.012938984669744968,
            -0.018175344914197922,
            -0.04542192444205284,
            -0.04529806971549988,
            -0.030955439433455467,
            -0.014098867774009705,
            -0.05960332229733467,
            -0.035020630806684494,
            0.015106236562132835,
            -0.029872700572013855,
            -0.006132415030151606,
            0.0017057167133316398,
            -0.009814894758164883,
            0.01648075133562088,
            0.00046941114123910666,
            0.022889254614710808,
            -0.024836499243974686,
            0.0025523731019347906,
            -0.007271424867212772,
            -0.011882947757840157,
            -0.02564035728573799,
            0.00731266662478447,
            0.03281749412417412,
            -0.0010193949565291405,
            -0.00942185241729021,
            0.0423630066215992,
            -0.004924052860587835,
            0.00963773112744093,
            0.0015291606541723013,
            0.009253626689314842,
            0.008676937781274319,
            -0.0302375927567482,
            -0.0024849988985806704,
            -0.05195748805999756,
            -0.021113907918334007,
            -0.027354096993803978,
            -0.020610308274626732,
            -0.02403826266527176,
            0.005811166018247604,
            -0.030490469187498093,
            -0.015176198445260525,
            -0.012456079013645649,
            -4.872437420999631e-05,
            0.017879124730825424,
            -0.027991393581032753,
            0.011372996494174004,
            0.01507260836660862,
            -0.003597692586481571,
            0.015400858595967293,
            0.025824880227446556,
            0.0012761547695845366,
            0.014994313009083271,
            0.00726845720782876,
            -0.005036080256104469,
            -0.012368736788630486,
            0.03978591412305832,
            -0.008731790818274021,
            -0.019399508833885193,
            -0.01724553108215332,
            -0.01837228238582611,
            0.03007148951292038,
            0.006332854740321636,
            0.0059856995940208435,
            -0.027865378186106682,
            0.006944502703845501,
            -0.004662690684199333,
            0.009907592087984085,
            -0.007511616684496403,
            0.007636683993041515,
            -0.03596751019358635,
            -0.020836645737290382,
            0.019656741991639137,
            0.007737135048955679,
            0.031496789306402206,
            -0.016492072492837906,
            -0.0258408784866333,
            -0.02020103670656681,
            0.006173884030431509,
            0.034585122019052505,
            0.02834506705403328,
            -0.0038533362094312906,
            0.010480557568371296,
            0.014529149979352951,
            0.01241114642471075,
            0.037470996379852295,
            -0.010225622914731503,
            0.023419495671987534,
            0.008886715397238731,
            0.039848290383815765,
            0.04121260344982147,
            -0.011232346296310425,
            0.016344893723726273,
            -0.006585855968296528,
            -0.009400429204106331,
            -0.01520257256925106,
            0.023407673463225365,
            -0.027551895007491112,
            -0.03821949288249016,
            -0.024750882759690285,
            0.0043318308889865875,
            0.011736142449080944,
            0.039034388959407806,
            -0.01594998687505722,
            -0.020845739170908928,
            0.03888798505067825,
            0.01093678455799818,
            0.04208508878946304,
            0.01103766169399023,
            0.034974630922079086,
            0.014818994328379631,
            -0.0031635169871151447,
            0.042900800704956055,
            0.057249125093221664,
            -0.003424574388191104,
            0.05533807352185249,
            -0.010078688152134418,
            -0.010636206716299057,
            0.0072966208681464195,
            0.02728096768260002,
            -0.01973230391740799,
            0.001995979342609644,
            -0.027245016768574715,
            -0.011247496120631695,
            -0.024307675659656525,
            -0.028629649430513382,
            0.02237394079566002,
            -0.030698604881763458
        ],
        [
            0.03054730035364628,
            0.028160003945231438,
            0.004586461000144482,
            0.009733184240758419,
            0.028767792508006096,
            -0.026900123804807663,
            0.013566509820520878,
            -0.002568588824942708,
            -0.01542274747043848,
            0.0070546348579227924,
            -0.009355916641652584,
            -0.032423246651887894,
            -0.024809807538986206,
            -0.03626101836562157,
            -0.0164584182202816,
            0.022008812054991722,
            -0.010865643620491028,
            -0.011544391512870789,
            -0.01546440925449133,
            -0.02742406353354454,
            -0.021955592557787895,
            -0.015884408727288246,
            0.002966917585581541,
            0.0054528964683413506,
            -0.0036953561939299107,
            0.0011052715126425028,
            0.0032984791323542595,
            -0.026368416845798492,
            -0.029883425682783127,
            -0.009128700941801071,
            0.004921507090330124,
            0.009466726332902908,
            -0.02752457745373249,
            -0.04108406975865364,
            -0.03028837777674198,
            -0.03898870572447777,
            -0.002157451119273901,
            0.02230190858244896,
            -0.008242039009928703,
            -0.017092980444431305,
            0.021478120237588882,
            -0.006963699124753475,
            -0.019488854333758354,
            0.014166295528411865,
            -0.015550719574093819,
            -0.02285735309123993,
            0.010304137133061886,
            0.02741086296737194,
            -0.010022686794400215,
            0.029200926423072815,
            0.005893397610634565,
            -0.007520946674048901,
            0.006822892930358648,
            0.016450414434075356,
            -0.004328891169279814,
            -0.003605719655752182,
            -0.0053101046942174435,
            -0.030493754893541336,
            0.015640830621123314,
            -0.041885919868946075,
            -0.026133134961128235,
            -0.04128662124276161,
            -0.018022766336798668,
            -0.006522889249026775,
            -0.032695382833480835,
            -0.01758032664656639,
            -0.043763790279626846,
            -0.043998006731271744,
            -0.010019060224294662,
            -0.03566955029964447,
            0.020394669845700264,
            0.011299830861389637,
            0.03447706252336502,
            -0.024180425330996513,
            0.03044021688401699,
            0.020590173080563545,
            -0.0027963968459516764,
            0.0020079631358385086,
            0.02011781372129917,
            0.00601054634898901,
            0.049434687942266464,
            0.042967382818460464,
            0.018324939534068108,
            -0.009615197777748108,
            0.026801912114024162,
            -0.00838693417608738,
            -0.031029758974909782,
            0.018007082864642143,
            -0.023854447528719902,
            0.002871970646083355,
            -0.04903853312134743,
            0.00309442775323987,
            -0.02422121912240982,
            -0.0535789355635643,
            -0.03786269947886467,
            -0.009130419231951237,
            -0.0022917897440493107,
            -0.005794372875243425,
            0.003916607238352299,
            0.028832999989390373,
            0.025674112141132355,
            0.020334666594862938,
            0.019868921488523483,
            0.05159084126353264,
            0.05494581162929535,
            0.014602288603782654,
            0.07909482717514038,
            0.038448188453912735,
            0.03022812306880951,
            0.05257031321525574,
            -0.004616547375917435,
            0.029342398047447205,
            0.020126886665821075,
            -0.0008814234752207994,
            -0.02504577487707138,
            -0.01722092367708683,
            0.012380175292491913,
            -0.027495495975017548,
            -0.0032771769911050797,
            -0.050250500440597534,
            -0.03284144029021263,
            -0.026297593489289284,
            -0.06596631556749344,
            -0.06423628330230713,
            -0.01733887381851673,
            -0.04902486130595207,
            -0.021665463224053383,
            0.032676372677087784,
            0.027976181358098984,
            0.060657989233732224,
            0.05161898210644722,
            0.04909776896238327,
            0.01675533875823021,
            0.07197544723749161,
            0.02964925393462181,
            0.04250616952776909,
            0.007374315522611141,
            0.03540023788809776,
            0.0016445992514491081,
            0.022941147908568382,
            -3.240811201976612e-05,
            -0.036133453249931335,
            -0.03912310674786568,
            0.011041446588933468,
            0.02829054743051529,
            0.013610943220555782,
            0.0017322258790954947,
            -0.052155833691358566,
            -0.0023549585603177547,
            0.014428233727812767,
            0.016253191977739334,
            0.004172872751951218,
            0.004596767947077751,
            0.006262606009840965,
            -0.02131471410393715,
            -0.018105611205101013,
            0.03178628161549568,
            -0.007537519093602896,
            -0.0011467100121080875,
            0.02704009786248207,
            0.02488545887172222,
            0.04022285342216492,
            0.006398705765604973,
            0.0505438931286335,
            0.0334639735519886,
            0.02746204286813736,
            0.00350416568107903,
            0.00848097912967205,
            -0.008771748282015324,
            0.013194302096962929,
            -0.03195282071828842,
            -0.02895653061568737,
            0.03069918602705002,
            0.013437959365546703,
            0.0034401703160256147,
            -0.025778815150260925,
            0.014751558192074299,
            -0.007302002515643835,
            0.029502421617507935,
            0.028729978948831558,
            0.024394258856773376,
            0.01750265620648861,
            -0.009389916434884071,
            0.016062049195170403,
            -0.024785464629530907,
            0.00043712236220017076,
            0.04982907697558403,
            0.04048026353120804,
            0.057594746351242065,
            0.06968030333518982,
            0.04718996584415436,
            0.05738880857825279,
            0.037120919674634933,
            0.05487706512212753,
            0.0114230215549469,
            0.030896971002221107,
            0.007756502367556095,
            -0.031805653125047684,
            0.019107410684227943,
            0.030434396117925644,
            0.04386094957590103,
            -0.0011863281251862645,
            -0.007059992291033268,
            0.03289816156029701,
            0.010629497468471527,
            0.04276455566287041,
            0.011496049351990223,
            0.02231096290051937,
            -0.011380820535123348,
            -0.02183183841407299,
            -0.02420717291533947,
            -0.03454546257853508,
            -0.0341118648648262,
            -0.009307550266385078,
            -0.04143967851996422,
            -0.017074428498744965,
            0.028494849801063538,
            0.0011305989464744925,
            0.010456064715981483,
            0.05170928314328194,
            0.023819778114557266,
            0.017885074019432068,
            -0.022182801738381386,
            -0.031874168664216995,
            -0.005241071805357933,
            -0.023432288318872452,
            -0.00783777330070734,
            -0.01378143485635519,
            0.012681517750024796,
            0.03571068495512009,
            0.03046538680791855,
            0.054759856313467026,
            0.019769802689552307,
            0.02939349040389061,
            0.0031903230119496584,
            -0.003265612991526723,
            0.02508583292365074,
            -0.02131265215575695,
            -0.040019694715738297,
            -0.06230804696679115,
            -0.050939179956912994,
            -0.043434083461761475,
            0.005386953707784414,
            0.02509683556854725,
            0.01672399416565895,
            0.009232411161065102,
            0.03834933787584305,
            0.025751570239663124,
            0.0098688630387187,
            0.008336068131029606,
            0.00022527806868311018,
            0.018697800114750862,
            -0.037062618881464005,
            0.02957328036427498,
            0.04483160376548767,
            0.013125144876539707,
            -0.0064316401258111,
            0.00892078410834074,
            0.05825984477996826,
            0.06125795841217041,
            0.07182596623897552,
            0.06276286393404007,
            0.0508727990090847,
            0.028206098824739456,
            -0.03509203717112541,
            -0.0088188536465168,
            -0.016205182299017906,
            -0.05327688530087471,
            -0.05681523680686951,
            -0.05704747512936592,
            0.015665430575609207,
            0.001414459547959268,
            0.026185544207692146,
            -0.01422958541661501,
            0.00873597338795662,
            0.03567987307906151,
            0.025587378069758415,
            -0.024264952167868614,
            0.016346171498298645,
            -0.026629064232110977,
            -0.017062637954950333,
            0.03391813486814499,
            -0.0213600043207407,
            -0.0013032101560384035,
            0.06277734786272049,
            0.03620142117142677,
            0.032874301075935364,
            0.047224875539541245,
            0.017935898154973984,
            0.019757885485887527,
            0.022548383101820946,
            -0.0028793748933821917,
            -0.008983070962131023,
            -0.0036371564492583275,
            -0.040490467101335526,
            -0.07400605827569962,
            -0.05895073339343071,
            0.0053511918522417545,
            0.006040611304342747,
            0.01179606281220913,
            0.02612096443772316,
            0.0013482985086739063,
            0.045024484395980835,
            0.0027086567133665085,
            0.016988229006528854,
            0.021654563024640083,
            0.00013676236267201602,
            0.02528039552271366,
            -0.015225297771394253,
            0.014272395521402359,
            0.04713631048798561,
            0.015450680628418922,
            0.061202272772789,
            0.0546267069876194,
            0.041858769953250885,
            0.058720238506793976,
            0.01559896394610405,
            -0.020733529701828957,
            -0.06066684424877167,
            -0.03417263180017471,
            -0.04086770489811897,
            -0.06533873826265335,
            -0.06499145925045013,
            -0.006641526706516743,
            0.0005349429557099938,
            -0.00787417683750391,
            0.04884568601846695,
            0.01021131407469511,
            -0.004792261868715286,
            0.02233755961060524,
            0.029397806152701378,
            0.044197119772434235,
            0.03559426590800285,
            -0.0011988971382379532,
            -0.028037715703248978,
            0.015595166012644768,
            -0.00014863343676552176,
            -0.012655469588935375,
            0.023951932787895203,
            0.011675049550831318,
            -0.011715193279087543,
            -0.0006472958484664559,
            0.034767668694257736,
            -0.015251345001161098,
            0.010102401487529278,
            -0.0460367351770401,
            -0.02489590458571911,
            -0.04449564963579178,
            -0.05947312340140343,
            -0.0659695640206337,
            -0.04923848435282707,
            -0.04723792523145676,
            -0.022090351209044456,
            -0.005631290376186371,
            -0.00014447345165535808,
            -0.008685770444571972,
            0.04754144698381424,
            0.0026426787953823805,
            -0.018477730453014374,
            0.011131465435028076,
            0.024553759023547173,
            0.006481142248958349,
            -0.010336101986467838,
            0.017839089035987854,
            0.020070582628250122,
            0.00857793353497982,
            0.012621319852769375,
            0.032898977398872375,
            -0.014370678924024105,
            0.017426438629627228,
            -0.025203527882695198,
            0.021239157766103745,
            -0.037176281213760376,
            -0.05355525016784668,
            -0.04356010630726814,
            -0.006264762487262487,
            -0.021642589941620827,
            -0.018809450790286064,
            0.0029258779250085354,
            0.029671818017959595,
            0.0011546738678589463,
            0.03778776898980141,
            0.03803126886487007,
            -0.008133434690535069,
            0.014807933941483498,
            0.00975640956312418,
            0.035125892609357834,
            0.032197464257478714,
            -0.02908403053879738,
            -0.013412803411483765,
            0.0017819158965721726,
            0.03393078222870827,
            0.010285374708473682,
            0.022725379094481468,
            -0.02163182944059372,
            0.003329533152282238,
            -0.003198682563379407,
            -0.016420526430010796,
            0.007021245546638966,
            0.007382065523415804,
            -0.010081162676215172,
            -0.06723186373710632,
            -0.018315793946385384,
            -0.04883350804448128,
            -0.05151299759745598,
            -0.046869710087776184,
            0.020617790520191193,
            -0.02127302810549736,
            -0.01153571717441082,
            -0.009229861199855804,
            0.04049153998494148,
            0.042232051491737366,
            0.032253529876470566,
            -0.03327914699912071,
            -0.001138573745265603,
            -0.021583853289484978,
            -0.0280620027333498,
            -0.026394696906208992,
            0.010045917704701424,
            0.011359951458871365,
            0.008081288076937199,
            0.01869037188589573,
            0.014220070093870163,
            -0.021349085494875908,
            0.012818243354558945,
            -0.009669979102909565,
            -0.0005328221013769507,
            0.014103077352046967,
            -0.009796088561415672,
            -0.020271001383662224,
            -0.04155849665403366,
            -0.027920493856072426,
            -0.03654645383358002,
            0.014134255237877369,
            0.02439272589981556,
            -0.014254996553063393,
            0.009134176187217236,
            -0.010516745038330555,
            0.038945522159338,
            0.01668713614344597,
            0.018939603120088577,
            -0.005533616058528423,
            -0.033741485327482224,
            -0.020185979083180428,
            0.026970097795128822,
            0.005629034247249365,
            -0.03212882950901985,
            -0.0012745014391839504,
            -0.003919647540897131,
            -0.011508245021104813,
            0.024640101939439774,
            -0.028737027198076248,
            0.01579231582581997,
            0.04176058992743492,
            -0.007639558054506779,
            0.011724703013896942,
            0.01896761544048786,
            0.0189348217099905,
            -0.0316295363008976,
            -0.010244362987577915,
            -0.018305370584130287,
            -0.02306494116783142,
            -0.01554836891591549,
            -0.011584214866161346,
            -0.0003386274038348347,
            -0.007135476917028427,
            -0.01168521586805582,
            0.013528247363865376,
            0.030306940898299217,
            -0.008389314636588097,
            -0.013157148845493793,
            0.015082118101418018,
            -0.03142654150724411,
            -0.020245160907506943,
            -0.020714430138468742,
            -0.04125501587986946,
            -0.021299652755260468,
            -0.003505340777337551,
            0.0037373825907707214,
            -0.001038392074406147,
            -0.0034960834309458733,
            0.047690462321043015,
            0.0026803866494446993,
            0.0007566420827060938,
            -0.020742375403642654,
            0.010924898087978363,
            -0.03965027630329132,
            -0.010341327637434006,
            -0.04683925583958626,
            0.013123000040650368,
            -0.03383417800068855,
            -0.032331645488739014,
            -0.012323705479502678,
            -0.010347636416554451,
            -0.018814051523804665,
            -0.024510322138667107,
            -0.0247221440076828,
            -0.00902312621474266,
            0.0004909849958494306,
            -0.013278924860060215,
            -0.02814801037311554,
            0.021363889798521996,
            0.012360715307295322,
            0.006304304581135511,
            -0.0062476214952766895,
            -0.03881755843758583,
            0.028109166771173477,
            -0.009052795358002186,
            0.014528807252645493,
            -0.008520538918673992,
            0.010610234923660755,
            0.04864255711436272,
            0.021500153467059135,
            0.02322581224143505,
            -0.02521970495581627,
            -0.013688648119568825,
            0.019460249692201614,
            -0.01815517246723175,
            -0.0312981978058815,
            0.03012836165726185,
            0.011985523626208305,
            0.013117494992911816,
            -0.03974078968167305,
            -0.023966724053025246,
            -0.03223221376538277,
            -0.04822537302970886,
            -0.01720409281551838,
            -0.03758605942130089,
            -0.0080283647403121,
            -0.0053741964511573315,
            0.017615612596273422,
            -0.03855161368846893,
            -0.01671021804213524,
            -0.031389929354190826,
            0.024940257892012596,
            -0.027712613344192505,
            0.001761132967658341,
            0.03248671814799309,
            0.0014076525112614036,
            0.008918475359678268,
            -0.0014919688692316413,
            -0.007994264364242554,
            -0.01295658852905035,
            0.0036515812389552593,
            -0.01737094484269619,
            -0.00025182843091897666,
            0.02077247016131878,
            -0.005336044821888208,
            0.02243448607623577,
            -0.04226056858897209,
            -0.015025876462459564,
            -0.011920713819563389,
            -0.007111805956810713,
            -0.025046302005648613,
            0.021186619997024536,
            0.02127126418054104,
            0.01977953314781189,
            -0.03390982002019882,
            0.015514970757067204,
            -0.008056280203163624,
            0.009358837269246578,
            -0.015215897932648659,
            -0.03013208508491516,
            -0.018025096505880356,
            -0.0007942497031763196,
            -0.0009122532792389393,
            0.023303229361772537,
            0.01348823495209217,
            0.02360953763127327,
            0.04922429099678993,
            0.013351188972592354,
            0.016927124932408333,
            0.01951315440237522,
            0.02530784159898758,
            -0.022638002410531044,
            0.01250585075467825,
